digraph Tree {
node [shape=box] ;
0 [label="X[3] <= 0.5\ngini = 0.6848\nsamples = 21\nvalue = [8, 7, 5, 1]"] ;
1 [label="X[0] <= 2.0\ngini = 0.1975\nsamples = 9\nvalue = [8, 0, 0, 1]"] ;
0 -> 1 [labeldistance=2.5, labelangle=45, headlabel="True"] ;
2 [label="gini = 0.0\nsamples = 8\nvalue = [8, 0, 0, 0]"] ;
1 -> 2 ;
3 [label="gini = 0.0\nsamples = 1\nvalue = [0, 0, 0, 1]"] ;
1 -> 3 ;
4 [label="X[0] <= 2.5\ngini = 0.4861\nsamples = 12\nvalue = [0, 7, 5, 0]"] ;
0 -> 4 [labeldistance=2.5, labelangle=-45, headlabel="False"] ;
5 [label="gini = 0.0\nsamples = 7\nvalue = [0, 7, 0, 0]"] ;
4 -> 5 ;
6 [label="gini = 0.0\nsamples = 5\nvalue = [0, 0, 5, 0]"] ;
4 -> 6 ;
}